%YAML:1.0
---
syringe: !!opencv-object-detector-hog
   winSize: [ 144, 48 ]
   blockSize: [ 16, 16 ]
   blockStride: [ 8, 8 ]
   cellSize: [ 8, 8 ]
   nbins: 9
   derivAperture: 1
   winSigma: 4.
   histogramNormType: 0
   L2HysThreshold: 2.0000000000000001e-01
   gammaCorrection: 1
   nlevels: 64
   signedGradient: 0
   SVMDetector: [ -2.25278502e-03, -3.26147978e-03, -2.17784473e-04,
       7.83621916e-04, -1.86635007e-03, -1.82013144e-03, 3.77009134e-03,
       -1.45027108e-04, -2.14378070e-03, -1.35700672e-03, 1.32415240e-04,
       2.24122941e-03, -1.31341454e-04, -5.22601558e-03, -5.37750171e-03,
       2.93543655e-03, 7.80987204e-04, -3.10672936e-03, 3.51579976e-03,
       -3.66665749e-03, -3.34525161e-04, 1.49859732e-03, -2.85301730e-03,
       -3.75167513e-03, -2.18080822e-04, -1.56193494e-03, 3.27591482e-03,
       4.85597877e-03, -7.56972877e-04, 7.65288807e-03, 6.70184090e-04,
       1.46024986e-05, -6.61992701e-03, -9.13153519e-04, -2.19756388e-03,
       3.30737443e-03, -3.38795967e-03, 1.13117685e-05, -1.49504934e-03,
       2.43842980e-04, -1.23936785e-02, -5.33912145e-03, -5.07184630e-03,
       -1.82374928e-03, -5.44243818e-03, 5.38816536e-03, 4.49132640e-03,
       2.17049848e-03, 4.13199048e-03, -1.42992660e-02, -2.04470940e-03,
       -1.73116964e-03, 1.15669810e-03, -6.70749359e-05, -1.05409464e-03,
       9.29262431e-04, 4.32489393e-03, 2.51377909e-03, -4.10684058e-03,
       -6.06385339e-03, -3.69745796e-03, -3.17799556e-03,
       -3.23254964e-03, 1.08653856e-02, 1.14510963e-02, 8.39738920e-03,
       1.65182203e-02, -4.38294373e-03, 1.82429538e-03, 1.80305750e-03,
       2.21912260e-03, 3.93853709e-03, 3.54089052e-03, 1.52632571e-03,
       -1.02729326e-04, 2.90360651e-04, -1.66943111e-02, -2.53505632e-03,
       -8.46279727e-04, 1.65842718e-03, 1.56979030e-03, 1.32453290e-03,
       2.57900241e-03, -6.49320282e-05, -6.70431938e-04, -1.84773505e-02,
       -2.80252472e-03, -6.54806325e-04, 1.19477184e-03, 2.72174040e-03,
       5.36828628e-03, 8.68978724e-03, 1.80945557e-03, 9.32354480e-03,
       -9.76072811e-03, 2.91959755e-03, 6.55370299e-03, 9.69722401e-03,
       6.11947523e-03, -7.72527652e-04, -1.20630208e-03, -5.53588849e-03,
       6.06858684e-03, -6.86675962e-03, 7.47722108e-03, 9.52481478e-03,
       9.97513998e-03, 1.40215876e-03, 5.05017757e-04, -4.11116373e-04,
       -3.88136576e-03, -1.72483537e-03, -1.22211706e-02,
       -2.74461163e-05, 2.85150018e-03, 2.58680293e-03, 2.58761109e-03,
       4.84651770e-04, 8.83899629e-04, -6.75225572e-04, -2.96357297e-03,
       -1.20755993e-02, -4.09123115e-03, -3.49494279e-04,
       -2.60887970e-03, 3.20242951e-04, -2.89509119e-03, -1.83441804e-03,
       -5.70654310e-03, 6.10591797e-03, -9.40347963e-04, 1.45790335e-02,
       1.19830873e-02, 1.00707673e-02, 2.06749421e-03, -1.32908660e-03,
       8.78036721e-04, -3.09943222e-04, 1.91808154e-03, -7.93754309e-03,
       -4.84173506e-04, -9.04162007e-04, -1.24870415e-03,
       -2.49676500e-03, 4.60207928e-03, 2.78288242e-03, 3.86197702e-03,
       -3.85584077e-03, -6.99351542e-03, -2.80546886e-03, 4.50181263e-03,
       1.22825115e-03, 4.57174191e-03, -1.06035755e-03, -2.10940116e-03,
       -2.42833956e-03, -5.74755808e-03, -6.67333696e-03,
       -2.47490499e-03, 7.69888284e-04, -2.46053241e-04, -4.51453525e-04,
       4.68643382e-03, 4.37324401e-03, 2.87508103e-03, -3.15215148e-04,
       -5.67961764e-03, 4.08822671e-04, 2.67382059e-03, 3.69750289e-03,
       4.56471415e-03, 3.40732653e-03, 1.62830853e-04, -3.44956736e-03,
       -3.26470635e-03, -5.08349342e-03, -2.70953227e-04, 4.47910232e-03,
       5.82956197e-03, 4.55368636e-03, 2.09357869e-03, -2.87899602e-04,
       -2.76055973e-04, 2.29053642e-03, -5.15398011e-03, -2.72724102e-03,
       -3.53517564e-04, -1.83606357e-03, 1.19027589e-03, 5.36781037e-03,
       1.55167910e-03, 5.86064439e-03, 2.92280893e-04, 4.84880671e-04,
       -4.23360756e-03, -3.14410077e-03, -2.91410810e-03, 3.51989758e-03,
       -1.88889168e-03, -6.79605291e-04, -9.17348021e-04,
       -6.37924590e-04, 2.42315885e-03, -2.22413195e-03, 3.16396402e-03,
       -2.43815361e-03, -2.63423752e-03, 3.21767991e-03, 4.47985157e-03,
       5.26908925e-03, 3.02516529e-03, 1.75985810e-03, -7.86446850e-04,
       -1.71228603e-03, -3.72301717e-03, -1.73854281e-03,
       -3.70859914e-03, -1.46734907e-04, 1.20724889e-03, 1.55727181e-03,
       -4.26455354e-03, -1.60994788e-03, -3.55067151e-03,
       -3.05083860e-03, -5.09291142e-03, 3.20441299e-03, 5.82572073e-03,
       2.08488153e-03, 9.87938046e-03, -3.82038765e-03, 7.45981559e-03,
       5.22295013e-04, -6.32434094e-04, -1.93733640e-03, -4.04134765e-03,
       1.54733041e-03, 8.33970902e-04, 4.48175380e-03, -2.15658010e-03,
       2.31035776e-03, -5.03717735e-03, -5.40739484e-03, -6.89658662e-03,
       3.45916371e-03, 6.63460698e-03, 4.91928961e-03, 1.05179651e-02,
       -4.93896939e-03, 1.09727308e-02, -6.76377036e-04, -2.54138745e-03,
       -3.03815189e-03, 6.57492725e-04, 8.19571025e-04, -4.41656634e-03,
       8.21180549e-03, -4.91163926e-03, 5.14546782e-03, 1.64254848e-03,
       4.78904368e-03, -6.33562042e-04, -3.25853052e-03, -1.65574695e-03,
       -8.64058547e-03, 9.31556150e-03, -2.41163792e-03, 7.06221862e-03,
       3.26110097e-03, 4.45819879e-03, -3.60441417e-03, 2.93275854e-03,
       3.01668770e-03, -1.20514177e-03, 6.89621177e-03, -5.31020341e-03,
       5.36759244e-03, -3.96879716e-03, 9.29356087e-04, 1.11051113e-03,
       1.35847414e-03, 2.42783362e-03, -2.07821140e-03, 8.83851200e-03,
       -2.72738328e-03, 3.75739159e-03, -6.63000625e-03, 3.16097611e-03,
       5.52463811e-03, -5.74002368e-03, -1.60793832e-03, -6.31882902e-03,
       1.07497526e-02, 1.83911331e-03, 1.05342995e-02, -1.28371606e-03,
       -1.03659881e-03, -5.97150438e-03, -5.32439211e-03,
       -1.89405959e-03, -4.18471545e-03, 7.92942662e-03, -8.46125465e-03,
       -2.09505903e-03, -5.74836694e-03, -3.68928281e-03,
       -6.09332230e-03, -1.45872089e-03, 9.19553742e-04, -4.64716228e-03,
       7.40169454e-03, 2.51751230e-03, 6.92975102e-03, -3.81678366e-03,
       7.81926885e-03, 7.55647570e-03, -4.61908616e-03, -3.49459541e-03,
       -6.25554612e-03, 4.58989292e-03, -7.60999741e-03, -2.39321776e-03,
       1.09963957e-03, 1.03810234e-02, 3.73977865e-03, 2.32734601e-04,
       -2.65624403e-04, -9.62294929e-04, 5.09095239e-03, -2.71484372e-03,
       -3.84872872e-03, 5.93539095e-04, 1.51806255e-03, 1.68074504e-03,
       -8.22145375e-04, -2.75587547e-03, -4.20003105e-03,
       -7.06173829e-04, -6.24647085e-03, -5.39483735e-04, 3.79834580e-03,
       4.74363938e-03, 4.58145805e-04, -3.08416726e-04, -3.24404705e-03,
       -4.19993605e-03, 4.90757544e-03, -1.51314703e-03, 8.85710760e-04,
       1.15752844e-02, 1.34497127e-02, 5.66290505e-03, -1.39683671e-03,
       -2.27879081e-03, -4.73133661e-03, -1.73453853e-04,
       -4.58681397e-03, 3.16621299e-04, 8.89396388e-03, 7.79841607e-03,
       -2.01672711e-03, -4.24442906e-03, -1.97309582e-03,
       -1.20128097e-03, -1.79484696e-03, -1.60923264e-05,
       -2.08304613e-03, 2.96325161e-04, -2.44865217e-03, -5.39813749e-03,
       -1.47158571e-03, 4.44811163e-03, 4.78808535e-03, 6.91101979e-03,
       1.85637875e-03, 1.64020131e-03, -2.17173569e-04, -1.56094413e-03,
       -4.27728193e-03, -3.29289632e-03, -2.24244222e-03,
       -1.30098755e-03, -1.79119263e-04, -1.80532713e-03,
       -3.63703747e-03, -5.94975194e-04, 1.24427106e-03, -2.50722934e-03,
       -6.84652128e-04, -6.30017719e-04, 2.36947439e-03, 1.00540975e-02,
       5.13997045e-04, 4.52958513e-03, 1.95658929e-03, 3.10481037e-03,
       -6.25889516e-04, -2.87671777e-04, 5.54150343e-03, 2.09129346e-03,
       7.75673985e-03, 3.07229900e-04, 2.56658997e-03, -1.68336672e-03,
       -1.23299204e-03, -3.83956591e-03, 8.31952598e-03, 9.79926530e-03,
       4.81594354e-03, 6.88211760e-03, -4.60449234e-03, 8.71221162e-03,
       3.01140198e-03, 2.22560228e-03, 1.06775481e-03, -5.26060176e-04,
       1.49620941e-03, -9.52348521e-04, 1.01121543e-02, -3.12580657e-03,
       1.72735436e-03, -1.17940991e-03, 2.75900494e-03, -1.32202671e-03,
       2.53550033e-03, 1.48020685e-03, 1.24939880e-03, 6.65634358e-03,
       -1.33502297e-02, -1.75867448e-04, 6.28844311e-04, 4.63101268e-03,
       9.11914976e-04, 8.02814215e-03, 2.29542726e-03, -2.54463474e-03,
       2.18605204e-03, -1.39492955e-02, 3.17688938e-03, -1.38061144e-03,
       3.69881792e-03, 8.59807339e-03, 7.78347580e-03, 3.22484155e-03,
       -4.03623423e-03, 3.30157951e-03, -1.06469085e-02, 4.18220973e-03,
       -2.45654047e-03, 1.16608571e-02, 1.11659542e-02, 5.86186023e-03,
       -1.22861424e-03, -1.00453536e-03, 6.55230135e-03, -2.02818904e-02,
       -8.69108306e-04, -2.51609227e-03, 3.00438376e-03, 7.43660377e-03,
       5.97508159e-03, 4.94476082e-03, 1.65906921e-03, 1.02979532e-02,
       -1.59818791e-02, 4.48910473e-03, -1.26043480e-04, 9.43325832e-03,
       9.59247164e-03, 1.42902613e-03, 2.78472574e-03, -4.30136360e-03,
       3.53367371e-03, -6.48647128e-03, 3.30720632e-03, 1.05083024e-03,
       1.29043683e-02, 1.10760406e-02, -7.78346043e-03, -4.24036756e-03,
       -4.32280963e-03, 6.79516466e-03, -1.07837785e-02, -1.55305839e-03,
       1.71564624e-03, 1.14074908e-02, 3.17621278e-03, 2.62225629e-03,
       5.06063784e-03, 2.03378336e-03, 1.23486482e-02, -1.10244388e-02,
       7.47449463e-03, 1.92064710e-03, 1.10628195e-02, 5.90536837e-03,
       -9.06800944e-03, -3.27921729e-03, -9.46948712e-04, 1.14259636e-02,
       -1.12892082e-02, 4.71439632e-03, -5.11870533e-03, 2.24167900e-03,
       -6.96153194e-03, -1.38419901e-03, -1.84984040e-03, 1.14202662e-03,
       9.37152281e-03, -1.72936270e-04, 2.79086642e-03, 8.02012160e-03,
       8.43012054e-03, 3.26858810e-03, -1.16609305e-03, -2.83630041e-04,
       -1.90864527e-03, 1.66802655e-03, -3.84245208e-03, -2.42392207e-03,
       5.17287478e-03, 3.73827550e-03, -2.96993623e-03, -5.47588477e-03,
       -3.12719867e-03, 3.35709075e-03, 1.21063357e-02, 8.59636057e-04,
       6.17714645e-03, 1.28215761e-03, 1.01373612e-03, -3.19049554e-03,
       -3.50297848e-03, -5.61898155e-03, -3.37578612e-03,
       -1.62527512e-03, -3.43392114e-03, -2.04957812e-03, 6.61655888e-03,
       5.89754758e-03, -2.44138972e-03, -5.25328983e-03, -3.36750806e-03,
       -1.79285638e-03, -1.58870616e-03, -2.54584546e-03,
       -3.57659510e-03, -1.51928328e-03, 1.36894418e-03, -3.23714223e-03,
       -1.60739175e-03, -1.89656555e-03, 5.98260202e-04, 1.31455483e-02,
       2.53517483e-03, 2.42949417e-03, -1.78896799e-03, 3.02661024e-03,
       3.74965108e-04, -3.75975715e-03, -7.64858630e-03, -5.09133423e-03,
       -3.09216511e-03, -4.04167827e-03, -2.10912991e-03,
       -7.77137349e-04, 1.92612025e-03, -1.53141073e-03, -6.32415118e-04,
       -2.46198149e-03, -7.19719392e-04, 1.34899765e-02, 2.14191061e-03,
       3.03085102e-03, -9.36717435e-04, 9.98498173e-04, 1.23094732e-03,
       -1.38843048e-03, -2.29519722e-03, 2.27090510e-04, 1.29258931e-02,
       -3.96756548e-03, -1.99713185e-03, -2.37840950e-03, 6.70284848e-04,
       -2.20114039e-03, 5.02635026e-03, -1.58962503e-03, 2.02561519e-03,
       1.30898394e-02, -9.19787213e-03, -4.74202540e-03, -5.51376550e-04,
       4.10200655e-03, 5.03827026e-03, -1.89658371e-03, -1.45179336e-03,
       -1.03365758e-03, 1.37044499e-02, -3.09068058e-03, 1.66646205e-04,
       -2.64889118e-03, -1.65590399e-03, -2.58635660e-03, 6.51756395e-03,
       -3.59547121e-04, -2.62104906e-04, 1.33766122e-02, -6.89816428e-03,
       -1.72300544e-03, 6.41359191e-04, 3.50994687e-03, 7.10519031e-03,
       7.41767930e-03, -8.46952258e-04, -1.52625144e-03, 6.86143572e-03,
       -1.95885561e-02, -3.69332521e-03, -3.52160539e-03, 4.19800729e-03,
       1.05423685e-02, 1.05090393e-02, 2.95973476e-03, 1.26424443e-03,
       1.14309303e-02, -1.44631602e-02, 4.80490085e-03, -3.16139241e-03,
       2.04443233e-03, 1.20656118e-02, 7.06327334e-03, -2.93208472e-03,
       -4.79547912e-03, 6.15813443e-03, -1.56237865e-02, -6.59337780e-03,
       -3.73285753e-03, 4.20436962e-03, 1.13142384e-02, 6.73659332e-03,
       -1.50724698e-03, -4.64943144e-03, 9.72146355e-03, -1.25372196e-02,
       -5.55997482e-04, -8.27462226e-03, 1.65192143e-03, 7.91285187e-03,
       5.33956848e-03, 2.45957379e-03, 7.39460927e-04, 6.75053662e-03,
       -7.11221434e-03, 9.93766729e-03, -1.68390950e-04, 2.07057665e-03,
       6.71710214e-03, -8.37804843e-03, -4.53998428e-03, -6.09907974e-03,
       4.84718988e-03, -7.67549779e-03, 9.57506523e-03, -4.49540885e-03,
       -1.19696220e-03, -6.98035024e-03, 2.44961539e-03, -3.17364722e-03,
       -3.16644739e-03, 9.84123163e-03, -8.58577550e-04, 8.88887420e-03,
       -4.09295363e-03, 6.82097161e-04, 4.98496275e-03, -6.62998715e-03,
       -7.48246629e-03, -1.09875659e-02, 8.12357478e-03, -3.97375785e-03,
       7.76538299e-03, -7.07304711e-03, -4.46774997e-03, -3.43738450e-03,
       -2.63998797e-03, -4.25341120e-03, -3.75246513e-03, 6.03958638e-03,
       4.08513146e-03, 1.26577718e-02, 1.18814933e-03, 2.09855707e-03,
       -2.64162128e-03, -2.42624967e-03, -5.77177154e-03,
       -3.58482986e-03, -2.26104120e-03, -3.63592897e-03, 5.03834337e-04,
       4.82499413e-03, 5.20358747e-03, -3.70856869e-05, 1.29801128e-03,
       -3.40737239e-03, -6.01245603e-03, 8.36905837e-03, 4.62951139e-03,
       1.03485640e-02, -7.04601232e-04, -1.02065981e-03, 1.06929790e-03,
       4.30824759e-04, -4.52798512e-03, -2.68399180e-03, -8.41178815e-04,
       -2.21833843e-03, -1.74861634e-03, 1.94355904e-04, 5.13757986e-04,
       7.03447498e-04, -3.32922535e-03, -6.91145891e-03, -3.27288662e-03,
       -2.53863703e-03, -4.01169760e-03, -2.54822848e-03, 1.51182385e-03,
       5.59137086e-04, -9.96393501e-04, -2.18275515e-03, -1.77855405e-03,
       -4.84137982e-03, 4.65410849e-04, 7.92219955e-03, 6.18978124e-03,
       -3.64117534e-03, -2.34920974e-03, -1.65103865e-03,
       -1.98350567e-03, -2.42350390e-03, -6.34273922e-04,
       -4.80840728e-03, -6.25807093e-03, -1.03586132e-03, 1.35047943e-03,
       1.16898147e-04, -1.65798480e-03, -2.43853405e-03, 1.89846600e-04,
       -4.13537305e-03, -1.38326350e-03, 8.53969157e-03, 6.31376682e-03,
       -3.54361627e-03, -3.51175014e-03, -3.87574639e-03,
       -4.09624353e-03, -2.57581170e-03, -6.69498229e-03, 3.49183357e-03,
       3.79529246e-03, 3.29766632e-03, -6.75771991e-03, -3.87857412e-03,
       -3.86556354e-03, -2.85868184e-03, -4.95049823e-03,
       -5.92501555e-03, 1.33403474e-02, 3.66205728e-04, -2.20890716e-03,
       -3.97581840e-03, -2.44580931e-03, -2.37875502e-03,
       -8.25377461e-03, -3.13770724e-03, -6.08582841e-03, 3.46444943e-03,
       3.07310419e-03, 4.11528070e-03, -6.20986708e-03, -3.60657624e-03,
       -7.96516612e-03, -1.07542044e-02, -4.95299650e-03,
       -2.45381077e-03, 1.16589628e-02, 1.66111800e-03, -1.89403852e-03,
       -5.86297875e-03, -3.49330436e-03, -9.96511895e-03, 1.61183975e-03,
       -4.11476055e-03, -2.27668136e-03, 1.45964073e-02, -2.30008224e-03,
       -6.54362259e-04, -5.42509323e-03, -1.74821867e-03,
       -5.02171577e-04, -1.07876176e-03, -3.32883839e-03,
       -1.76532357e-03, 1.74732301e-02, 4.81572002e-03, 4.36898554e-03,
       -9.96814575e-03, -3.40451486e-03, -7.17466930e-04,
       -1.14488211e-02, -3.69677809e-03, -3.69122310e-04, 1.37721067e-02,
       -2.75600329e-03, -7.89673824e-04, -8.29845481e-03,
       -3.98702454e-03, -1.05412789e-02, -1.33022694e-02,
       -3.99195077e-03, -5.38657885e-03, 1.39990104e-02, -4.83926968e-04,
       7.09983986e-03, -1.19545143e-02, -8.11745226e-03, -1.20666381e-02,
       -8.63298122e-03, -5.11991140e-03, -4.11512889e-03, 9.49704275e-03,
       9.99909639e-03, 7.54958857e-03, -8.53211712e-03, -3.80557566e-03,
       -6.43527461e-03, -9.23196878e-03, -4.93558403e-03,
       -9.91903339e-03, 8.78438260e-03, 6.64134603e-03, 2.98862183e-03,
       -8.56265333e-03, -4.73307958e-03, -8.84905085e-03,
       -1.12662530e-02, -5.25415316e-03, -9.96418484e-03, 4.52858256e-03,
       7.32088648e-03, 8.79992917e-03, -1.03314314e-02, -6.42297463e-03,
       -9.16464068e-03, -1.16683906e-02, -7.95782451e-03,
       -1.23092243e-02, 7.82496110e-03, 7.53039028e-03, 4.19926969e-03,
       -8.61875340e-03, -4.06327844e-03, -1.02657108e-02, 1.44322030e-03,
       -1.77261361e-03, -4.91348188e-03, 9.39338561e-03, 1.29327858e-02,
       2.35330756e-03, -4.62662603e-04, -9.46670480e-04, 1.16627815e-03,
       1.09846378e-03, -1.62463146e-03, -3.03798867e-03, 2.75183935e-03,
       -3.37605760e-03, -4.38799569e-03, 2.22344970e-05, 5.91360615e-04,
       1.14584528e-03, -3.24030756e-03, -4.23071720e-03, -8.15202389e-03,
       9.77974385e-03, 1.36185018e-02, 4.54805512e-03, -3.21800588e-03,
       -1.48815231e-03, -2.24866951e-03, -2.86839134e-03,
       -2.86686257e-03, -6.61307061e-03, 2.46446673e-03, -1.78418844e-03,
       -4.06910153e-03, -5.27665345e-03, -4.10645688e-03,
       -2.56899721e-03, -1.88467593e-03, -1.86845846e-03,
       -5.28600824e-04, -4.95242188e-03, -8.37377564e-04,
       -9.56323231e-04, -4.16445220e-03, -2.58842972e-03,
       -3.44354007e-03, -5.13385003e-03, -1.66889757e-03,
       -4.07240819e-03, 3.87066836e-03, 1.43431639e-02, 8.21231864e-03,
       -2.71694944e-03, -1.69342954e-03, -4.88817506e-03,
       -2.92693498e-03, -2.20623706e-03, -2.55885068e-03,
       -7.62709416e-03, -4.75799106e-03, -5.27944742e-03,
       -6.99756620e-03, -7.40791205e-03, -3.77066364e-03,
       -6.68746512e-03, -6.34589931e-03, -5.38867991e-03, 6.32815994e-03,
       1.21493833e-02, 7.78036425e-03, -5.01740491e-03, -3.30322492e-03,
       -6.29915576e-03, -9.50958766e-03, -3.22976522e-03,
       -4.95833345e-03, 6.08972181e-03, 2.39874469e-03, 4.50217258e-03,
       -4.72258497e-03, -2.98581179e-03, -8.69678054e-03,
       -7.78482668e-03, -2.79120426e-03, -8.29100085e-04, 1.44790532e-02,
       5.53601561e-03, -2.51002121e-03, -5.42965764e-03, -3.76226730e-03,
       -7.93126691e-03, -1.09950788e-02, -3.84577690e-03,
       -5.47706615e-03, 1.06812837e-02, 3.14877543e-04, 5.56629850e-03,
       -9.57508571e-03, -5.01553947e-03, -1.12981433e-02,
       -6.15346385e-03, -2.65810592e-03, -1.45013153e-03, 1.61006618e-02,
       3.41419433e-03, 5.61483670e-04, -1.22386599e-02, -7.42282672e-03,
       -9.33345687e-03, -4.74527432e-03, -1.94409557e-04, 2.29041628e-03,
       1.03748059e-02, -4.22572048e-04, -3.10587347e-03, -5.95657481e-03,
       -2.17211014e-03, -3.34104639e-03, -5.47214318e-03,
       -2.50962283e-03, -5.61468583e-03, 8.45770631e-03, 1.05580594e-03,
       5.68392826e-03, -6.10370282e-03, -2.21020775e-03, -2.95548979e-03,
       -2.89435638e-03, -3.89304187e-04, -8.73173412e-04, 1.02792643e-02,
       -3.91532056e-04, 5.67178475e-03, -4.16789111e-03, -3.04019800e-03,
       -3.73859983e-03, -6.21083053e-03, -2.43798574e-03,
       -8.17595888e-03, 9.19084065e-03, 6.04858622e-03, 1.61462333e-02,
       6.36931160e-04, 1.10807305e-03, -1.53153786e-03, -8.59803054e-03,
       -4.85669542e-03, -9.80128068e-03, 2.37092678e-03, 1.08635901e-02,
       8.85935966e-03, -4.99157188e-03, -2.31294916e-03, -4.99121705e-03,
       -9.58968606e-03, -7.13424897e-03, -9.90407262e-03, 4.70604328e-03,
       9.41788312e-03, 2.62477831e-03, -6.27901265e-03, -3.10165994e-03,
       -8.25294387e-03, -1.12257209e-02, -5.48776425e-03,
       -9.85655934e-03, 6.91007217e-03, 1.38488179e-02, 1.42085273e-02,
       -1.06956414e-03, -2.04517110e-03, -6.64848601e-03,
       -1.35671943e-02, -7.92132132e-03, -1.20567298e-02, 6.43891608e-03,
       8.80611036e-03, -1.53116393e-03, -8.70641414e-03, -8.31960328e-03,
       -1.47064067e-02, -3.26497993e-03, -4.50778566e-03,
       -7.06471689e-03, 3.99754755e-03, 1.13661792e-02, 4.76795994e-03,
       -3.12970602e-03, -2.27244617e-03, -3.16284178e-03,
       -4.48572304e-04, -3.42479046e-03, -7.58861052e-03, 2.79256725e-03,
       -2.53779907e-03, -4.81861550e-03, -3.30577977e-03,
       -4.25244495e-03, -2.81749875e-03, -5.98742114e-03,
       -4.88014566e-03, -6.93881465e-03, 9.08757746e-03, 1.25498073e-02,
       2.13746796e-03, -5.22667263e-03, -5.10936696e-03, -7.82625005e-03,
       9.77551448e-04, -5.43471193e-04, -4.02486371e-03, 6.00859150e-03,
       -5.39384037e-03, -8.29133950e-03, -3.43012391e-03, 2.06706766e-03,
       -1.71248510e-03, -2.42967770e-04, -2.61993089e-04, 7.16804061e-04,
       -6.52198819e-03, -6.13721414e-03, -6.35393010e-03,
       -4.82606143e-03, -1.24195649e-03, 1.57960074e-03, -5.28096920e-03,
       -3.79083725e-03, 4.09908855e-04, 2.62019318e-03, 1.56866834e-02,
       3.08741978e-03, -5.38004376e-03, -2.50204373e-03, -3.74224177e-03,
       1.31862203e-03, 2.33664713e-03, 1.41830984e-04, -7.09316181e-03,
       -6.86532492e-03, -8.18419177e-03, -4.56922129e-03,
       -2.25470911e-04, 2.51276651e-04, -2.71190051e-03, 7.13345304e-04,
       -3.53298470e-04, 5.18608699e-03, 1.30901495e-02, 5.99155016e-03,
       -7.07259635e-03, -3.20604676e-03, -6.21841848e-03,
       -1.11226095e-02, -5.82759827e-03, -5.23909600e-03, 7.23851472e-03,
       7.23707722e-03, 3.68838431e-03, -9.89982951e-03, -4.99809161e-03,
       -1.05850277e-02, -1.11756651e-02, -5.42755658e-03,
       -5.76224085e-03, 1.43137807e-02, 8.96026287e-03, 4.88094240e-03,
       -1.01271858e-02, -7.06645846e-03, -1.18905623e-02,
       -1.09150410e-02, -5.55852056e-03, -8.52209888e-03, 1.05412230e-02,
       4.01898008e-03, 6.39889762e-03, -1.01460414e-02, -5.34943072e-03,
       -1.37922438e-02, -1.38208801e-02, -5.05228713e-03,
       -1.02990903e-02, 1.56421028e-02, 8.21882579e-03, 9.73431114e-03,
       -9.42303613e-03, -8.73289257e-03, -1.69948936e-02,
       -7.67585589e-03, -2.49116775e-03, -3.43133649e-03, 1.07281469e-02,
       6.93065999e-03, 9.14257579e-03, -2.08561192e-03, -5.01468265e-03,
       -1.03224963e-02, -1.16354115e-02, -2.41295109e-03,
       -6.05221651e-03, 9.19150747e-03, 1.04702711e-02, 1.32682938e-02,
       -1.24969694e-03, -3.44091631e-03, -1.04325274e-02,
       -8.92440230e-03, -2.18909280e-03, -5.72242728e-03, 1.31456200e-02,
       5.84988529e-03, 7.94353429e-03, -4.15158318e-03, -5.32022258e-03,
       -1.14617571e-02, -1.20893810e-02, -6.00463618e-03,
       -1.05157252e-02, 8.96948297e-03, 4.61559510e-03, 1.01168957e-02,
       -5.68725355e-03, -4.53905063e-03, -1.15518011e-02,
       -9.41078179e-03, -4.40553203e-03, -8.33079964e-03, 6.36786362e-03,
       1.76745206e-02, 8.02584831e-03, -3.69497202e-03, -2.45030504e-03,
       -9.63709410e-03, -1.34950401e-02, -1.01977298e-02,
       -1.37435598e-02, 8.13673902e-03, 1.34595977e-02, -1.02839537e-03,
       -7.49883614e-03, -5.98215126e-03, -1.34033319e-02,
       -1.06086070e-02, -6.39563240e-03, -1.15833683e-02, 6.35575457e-03,
       1.11988308e-02, 7.54664745e-03, -5.16493293e-03, -3.64565710e-03,
       -1.07553024e-02, -1.48733519e-02, -1.09765446e-02,
       -1.33344056e-02, 1.00421617e-02, 1.19586475e-02, -1.18059758e-03,
       -1.08713191e-02, -7.07939127e-03, -1.27256671e-02,
       -8.39506928e-03, -6.06928533e-03, -6.16151374e-03, 1.10672936e-02,
       1.84390601e-02, -1.62277662e-04, -4.02774336e-03, -2.37174379e-03,
       -8.10771808e-03, -2.96008657e-04, -1.45080476e-03,
       -3.47570190e-03, 4.43324447e-03, -6.37762342e-03, -7.63239572e-03,
       -2.06686833e-04, 5.24722179e-03, 2.11915607e-03, -9.54339374e-03,
       -6.22108346e-03, -7.28676887e-03, 1.02748247e-02, 1.71150845e-02,
       5.54898754e-04, -7.65150134e-03, -6.11382071e-03, -8.94261245e-03,
       -4.20145690e-03, -2.96718418e-03, -5.81876002e-03, 4.83169861e-04,
       -8.03386793e-03, -1.05109960e-02, -5.13014290e-03, 2.06091977e-03,
       -1.75141403e-03, 3.84935550e-03, 4.10654378e-04, -3.40761826e-03,
       -6.88147126e-03, -7.55544426e-03, -7.10140029e-03,
       -4.39300109e-03, -5.66358538e-03, -3.96728842e-03,
       -9.53640905e-04, -6.91880123e-04, -3.37810488e-03, 3.81907658e-03,
       1.66655947e-02, 4.76447353e-03, -2.97568156e-03, -3.39808105e-03,
       -2.05944432e-03, -3.61340609e-03, -5.31839486e-03,
       -4.60003177e-03, -1.12033626e-02, -9.80114564e-03,
       -9.11942590e-03, -3.44121503e-03, -7.09839724e-03,
       -5.50795067e-03, -3.43227497e-04, -2.22182530e-03,
       -3.41424230e-03, 7.22428178e-03, 1.56854931e-02, 4.61070472e-03,
       -4.64731769e-04, -9.29819129e-04, -6.88125263e-04,
       -9.48596559e-03, -4.38156677e-03, -7.79467402e-03, 8.94456357e-03,
       4.23203362e-03, 3.01175122e-03, -7.67298602e-03, -3.80307762e-03,
       -9.94816516e-03, -1.17020197e-02, -5.12639992e-03,
       -1.29390704e-02, 1.28686177e-02, 7.44561804e-03, 6.40784809e-03,
       -8.06914922e-03, -5.39592933e-03, -1.27464859e-02,
       -9.75798443e-03, -5.90719748e-03, -1.15747927e-02, 7.39813736e-03,
       8.27576034e-03, 1.32262730e-03, -8.01688153e-03, -3.61302984e-03,
       -9.46218055e-03, -1.30316000e-02, -7.13661872e-03,
       -1.50561063e-02, 9.31323785e-03, 9.74382460e-03, 7.71015417e-03,
       -9.91714746e-03, -5.22303116e-03, -1.22459382e-02,
       -4.47192555e-03, -1.18743989e-03, -4.40020161e-03, 8.70436896e-03,
       6.61412859e-03, 9.67507623e-03, -4.37136972e-03, -2.66623078e-03,
       -5.62387239e-03, -5.93496254e-03, -2.74552894e-03,
       -1.01447906e-02, 6.30756514e-03, 8.20206292e-03, 1.08328154e-02,
       -5.06111188e-03, -2.52539665e-03, -5.64696360e-03,
       -4.39569727e-03, -5.28961304e-04, -8.07419885e-03, 7.38195190e-03,
       8.08050670e-03, 1.41079510e-02, -6.06674282e-03, -3.01925419e-03,
       -8.38245824e-03, -8.14713445e-03, -4.24712710e-03,
       -9.83517058e-03, 3.65181919e-03, 4.78696264e-03, 1.60168763e-02,
       -5.66152297e-03, -4.40480793e-03, -8.16534739e-03,
       -7.56886974e-03, -5.05205477e-03, -1.07800607e-02, 3.48978583e-03,
       8.51493515e-03, 6.38882257e-03, -5.62735461e-03, -4.69346298e-03,
       -7.22854119e-03, -8.73132423e-03, -6.95829419e-03,
       -8.87003727e-03, 8.58469773e-03, 1.05119031e-02, -9.40482598e-04,
       -1.03205983e-02, -7.98257533e-03, -8.89637507e-03,
       -8.21009371e-03, -6.86255051e-03, -8.78972467e-03, 4.98188753e-03,
       8.00736900e-03, 9.30969417e-03, -7.16404105e-03, -7.44012324e-03,
       -9.95091908e-03, -1.07438089e-02, -9.10779182e-03,
       -1.07425461e-02, 5.71514806e-03, 8.92234873e-03, 6.19845523e-04,
       -8.56395811e-03, -6.05249545e-03, -1.01891244e-02,
       -3.74146341e-03, -4.17980365e-03, -3.76303587e-03, 1.41755650e-02,
       1.97087619e-02, 6.35954784e-04, -6.08140137e-03, -5.86502580e-03,
       -1.61795923e-03, -1.59763638e-03, -3.24047939e-03,
       -5.12416381e-03, 2.11173625e-04, -2.24312954e-03, -1.11317784e-02,
       -6.18742546e-03, -1.77175505e-03, -7.48422637e-04,
       -4.02036635e-03, -4.36211098e-03, -2.59711593e-03, 1.24725997e-02,
       1.65286344e-02, 1.39738826e-04, -4.14734008e-03, -2.83086766e-03,
       -4.43985546e-03, -6.03366760e-04, -3.74648510e-03,
       -4.75712540e-03, -3.52429529e-03, -2.44186842e-03,
       -1.20401261e-02, -4.46097227e-03, -1.78914424e-03,
       -1.46067608e-03, -5.50190359e-03, -3.27096740e-03,
       -1.65089942e-03, -5.37231052e-03, -5.52717829e-03,
       -7.24520069e-03, -4.81961668e-03, -1.00272708e-02,
       -9.48323309e-03, -1.00160472e-03, -6.18316233e-04,
       -3.29330959e-03, 1.09399790e-02, 1.96352340e-02, 5.23169199e-03,
       -2.46525672e-03, -4.41619661e-03, -2.84097809e-03,
       -3.41389561e-03, -2.77743035e-04, -1.38374571e-05,
       -4.90631349e-03, -3.60641000e-03, -7.53887417e-03,
       -6.80603366e-03, -1.09529523e-02, -7.23470841e-03,
       -1.50018581e-03, 4.73469845e-04, -5.35407150e-03, 1.26530565e-02,
       1.55556574e-02, 5.68645541e-04, -5.31555666e-03, -8.57732166e-03,
       -3.64465057e-03, -6.36039488e-03, -4.41609975e-03,
       -1.22561483e-02, 8.44401401e-03, 1.35138081e-02, 3.43231298e-03,
       -6.63049240e-03, -4.51714080e-03, -7.06015341e-03,
       -1.25429584e-02, -7.65213883e-03, -1.30081093e-02, 7.22674932e-03,
       1.81917064e-02, 1.07783200e-02, -7.14914547e-03, -3.53603554e-03,
       -1.01252794e-02, -8.70914105e-03, -5.48603479e-03,
       -1.50612760e-02, 3.87158711e-03, 8.96590389e-03, 1.80278020e-03,
       -8.02616589e-03, -5.01767220e-03, -8.25180206e-03,
       -1.20270047e-02, -8.48521944e-03, -1.37780011e-02, 7.90820085e-03,
       1.38837909e-02, 1.00142835e-02, -7.49603473e-03, -4.35953308e-03,
       -1.11328140e-02, -9.13385674e-03, -2.60894350e-03,
       -7.88920932e-03, 5.16357366e-03, 1.21930568e-02, 1.54800555e-02,
       -2.82948255e-03, -2.16596271e-03, -8.20405129e-03,
       -1.07429726e-02, -5.92674548e-03, -7.60169141e-03, 4.83658956e-03,
       5.04014222e-03, 1.54409856e-02, -4.53230878e-03, -6.00531651e-03,
       -1.10109951e-02, -9.80447698e-03, -2.56709103e-03,
       -6.42275484e-03, 1.07099805e-02, 1.34130614e-02, 1.04202218e-02,
       -1.66831305e-03, -4.85210866e-03, -9.53277294e-03,
       -1.08291125e-02, -4.70263837e-03, -4.00756113e-03, 1.46115059e-02,
       8.91661737e-03, 1.34969354e-02, -2.34887074e-03, -7.48037314e-03,
       -1.19225197e-02, -9.69698653e-03, -8.12247302e-03,
       -8.23746808e-03, 4.80730971e-03, 1.06401518e-02, 5.89185115e-03,
       -7.00059393e-03, -8.27186555e-03, -1.21633690e-02,
       -1.19235096e-02, -7.27833202e-03, -8.88776314e-03, 9.15532093e-03,
       1.22011499e-02, -3.53230373e-03, -7.24702235e-03, -5.88436564e-03,
       -1.16965985e-02, -1.23677161e-02, -6.57307729e-03,
       -7.54435360e-03, 1.07976701e-02, 1.41477855e-02, 5.83993457e-03,
       -7.73146097e-03, -7.52520980e-03, -1.40673332e-02,
       -1.38880238e-02, -5.60077606e-03, -6.95360731e-03, 1.01522971e-02,
       1.15578892e-02, -3.45898699e-03, -1.03894379e-02, -6.60907757e-03,
       -1.34057682e-02, -6.68015564e-03, -3.12260608e-03,
       -1.86938490e-03, 1.38950683e-02, 2.06001811e-02, -3.55851231e-03,
       -1.42385904e-03, -3.15769645e-03, -9.81147680e-03,
       -2.42331973e-03, -1.25717337e-03, -1.95177027e-03,
       -2.21681222e-03, -1.08343142e-03, -9.85615980e-03,
       -1.86984462e-03, -1.77970633e-03, -3.50328395e-03,
       -6.18134486e-03, -4.33415035e-03, -2.00096262e-03, 9.85065289e-03,
       1.72115136e-02, -2.03330605e-03, -1.53405929e-03, -2.87124910e-03,
       -6.88466197e-03, 1.97299290e-03, -2.20083748e-03, -3.01638548e-03,
       -6.20041136e-03, -5.30006923e-03, -1.11630112e-02, 1.53685466e-03,
       5.25285082e-04, 1.56627328e-03, -1.38788158e-03, -9.79867880e-04,
       1.07135950e-03, -5.34920860e-03, -6.84419414e-03, -7.70817092e-03,
       -3.31639848e-03, -3.83048179e-03, -2.50619673e-03,
       -1.17688987e-03, -5.67455718e-04, -7.82128889e-03, 1.09388828e-02,
       1.60221830e-02, 2.04326864e-03, -3.11763212e-03, -4.73239273e-03,
       -1.74927793e-03, -3.48311872e-03, -7.21626449e-04, 1.54025655e-03,
       -6.30043866e-03, -9.16591659e-03, -5.10685518e-03,
       -2.65212235e-04, -1.19523029e-03, -3.18275904e-03,
       -3.78063205e-03, -3.26702418e-03, -8.66511837e-03, 1.05930129e-02,
       1.54018663e-02, 1.93358620e-03, -4.68770415e-03, -3.95914633e-03,
       -3.95100703e-03, -5.89078059e-03, -3.12793325e-03,
       -1.33545417e-02, 3.27917445e-03, 7.89423566e-03, 2.70225969e-03,
       -5.81879169e-03, -3.22096958e-03, -5.67576895e-03,
       -9.88014042e-03, -4.16612206e-03, -1.16708195e-02, 9.63245519e-03,
       1.23567665e-02, 8.70331749e-03, -7.11825769e-03, -4.83627804e-03,
       -8.24957062e-03, -6.64513232e-03, -3.71682830e-03,
       -1.07143894e-02, 7.51437666e-03, 6.92950049e-03, -1.66490686e-03,
       -1.05888676e-02, -5.55060199e-03, -8.23140051e-03,
       -7.88005814e-03, -4.48585115e-03, -8.63454584e-03, 1.21964039e-02,
       1.29719656e-02, 8.85069370e-03, -5.95391821e-03, -2.82527180e-03,
       -7.02341646e-03, -1.03889126e-02, -3.03187571e-03,
       -5.68803959e-03, 9.50798206e-03, 1.03916330e-02, 7.48088164e-03,
       -3.20994435e-03, -6.25018496e-03, -1.08783860e-02,
       -1.83545463e-02, -4.42780647e-03, -5.59362629e-03, 1.60180070e-02,
       1.20436419e-02, 9.10227187e-03, -4.39282972e-03, -7.18566915e-03,
       -1.79336537e-02, -4.99003148e-03, -7.70711224e-04,
       -5.93962008e-03, 1.21925985e-02, 1.05290543e-02, 1.23846950e-02,
       -1.72818592e-03, -5.33556682e-04, -5.39400568e-03,
       -6.03477284e-03, -1.12360355e-03, -5.58688445e-03, 2.03252658e-02,
       1.20777264e-02, 1.23357242e-02, -1.93303113e-03, -1.21301296e-03,
       -7.55923102e-03, -1.09328292e-02, -4.73809429e-03,
       -7.15464959e-03, 9.13496688e-03, 1.64902322e-02, 3.70266661e-03,
       -6.65238313e-03, -4.25797189e-03, -1.10754101e-02,
       -1.28354318e-02, -5.80856064e-03, -8.90093856e-03,
       -8.47428048e-04, 1.04921553e-02, -2.81917572e-04, -8.39709025e-03,
       -4.05382738e-03, -1.29586607e-02, -7.25181727e-03,
       -4.66256123e-03, -8.16958956e-03, 1.29219051e-02, 1.37205683e-02,
       4.71157208e-03, -5.19328285e-03, -3.26602207e-03, -8.16504844e-03,
       -9.82871652e-03, -5.60833607e-03, -1.28996018e-02, 6.16762554e-04,
       5.74033801e-03, 8.78488645e-04, -7.02483254e-03, -3.45315551e-03,
       -9.56042949e-03, -6.24321587e-03, -5.59040066e-03,
       -2.61799712e-03, 6.75302930e-03, 2.03881655e-02, 2.83964304e-03,
       -6.69055793e-04, -2.47347518e-03, -5.65387495e-03,
       -1.45466730e-03, -1.45962834e-03, -2.12796638e-03,
       -8.88101850e-03, -5.43484744e-03, -1.22839734e-02, 7.02190329e-04,
       5.41719317e-04, 1.81459400e-04, -4.30034567e-03, -2.47379625e-03,
       -4.13156161e-03, 7.62025034e-03, 1.87058244e-02, 5.57619380e-03,
       -2.85620592e-03, -1.91250921e-03, -2.81448895e-03,
       -1.32164371e-03, -2.88571493e-04, -1.12152088e-03,
       -7.19923340e-03, -8.10926594e-03, -1.26291690e-02,
       -2.92028068e-03, -2.64716148e-03, -1.51803519e-03,
       -6.81535574e-03, -3.05436132e-03, -3.34814517e-03,
       -6.35814387e-03, -8.50939378e-03, -2.33302033e-03,
       -1.13668467e-03, -9.46998887e-04, -5.15246904e-03,
       -5.31162461e-03, -2.30093510e-03, -6.43705530e-03, 1.51151149e-02,
       1.64836198e-02, 3.45013151e-03, -3.98505852e-03, -4.79652220e-03,
       -7.61881145e-03, -5.72009012e-03, -5.42091252e-03,
       -7.08072120e-03, -6.34002034e-03, -3.71951098e-03,
       -3.88175924e-03, -2.47086654e-03, -2.48598936e-03,
       -5.65318950e-03, -4.74572182e-03, -4.23895428e-03,
       -9.31156520e-03, 1.38407694e-02, 1.88984498e-02, 5.99503564e-03,
       5.50173863e-04, -4.63051070e-03, -7.30069587e-03, -6.13510096e-03,
       -3.54205258e-03, -8.95493291e-03, 1.23153497e-02, 1.03946403e-02,
       -6.03813154e-04, -7.86205195e-03, -6.53704023e-03,
       -9.62890871e-03, -9.18972865e-03, -4.39032307e-03,
       -6.63123745e-03, 1.12126172e-02, 1.12263560e-02, 6.81232009e-03,
       -5.97714866e-03, -6.97342819e-03, -1.25526702e-02,
       -9.07675549e-03, -4.57428955e-03, -8.47633462e-03, 1.17028011e-02,
       1.29108354e-02, 5.15318569e-03, -5.96284820e-03, -8.07404239e-03,
       -1.24128917e-02, -1.26956124e-02, -5.61424065e-03,
       -9.56139155e-03, 1.03210900e-02, 9.07732826e-03, 6.99015474e-03,
       -7.99694657e-03, -1.11199152e-02, -1.51568288e-02,
       -8.45374633e-03, -2.71566305e-03, -7.26584159e-03, 9.00317077e-03,
       7.17690866e-03, 1.00929448e-02, -2.79552396e-03, -4.95843962e-03,
       -1.15034962e-02, -7.76301604e-03, -2.73560034e-03,
       -5.50275948e-03, 2.20406409e-02, 1.33706853e-02, 1.21693183e-02,
       -1.81914202e-03, -9.41749429e-04, -8.46609008e-03,
       -9.24801547e-03, -5.08510461e-03, -9.45137534e-03, 6.35085208e-03,
       1.18029618e-03, 6.42200420e-03, -8.47811811e-03, -9.48654022e-03,
       -1.46056823e-02, -5.23956306e-03, -2.81003490e-03,
       -7.42609566e-03, 1.71707701e-02, 1.11755710e-02, 1.30549930e-02,
       -8.38212948e-03, -6.16788538e-03, -7.20837852e-03,
       -7.50263501e-03, -5.81185799e-03, -9.85662360e-03, 1.18184583e-02,
       1.45366937e-02, 4.70127678e-03, -5.19830594e-03, -4.08462388e-03,
       -7.17943627e-03, -1.01329740e-02, -6.96885027e-03,
       -1.51308579e-02, 3.63548659e-03, 5.43596409e-03, 1.96138676e-03,
       -7.70299230e-03, -5.71418041e-03, -9.51680634e-03,
       -8.58094078e-03, -7.83787295e-03, -1.39563140e-02, 8.08917545e-03,
       1.28028449e-02, 1.06409518e-02, -5.79312211e-03, -2.76389346e-03,
       -5.85213257e-03, -1.15624629e-02, -8.92456062e-03,
       -1.36183016e-02, 5.09746745e-03, 6.18350599e-03, 6.03710301e-03,
       -5.55674778e-03, -4.92605846e-03, -1.03281820e-02,
       -2.53208843e-03, -2.55794567e-03, -5.69106825e-03, 6.87541300e-03,
       1.65224355e-02, 2.25342042e-03, -2.54911371e-03, -2.77911080e-03,
       -2.19539762e-03, -3.00617139e-05, -7.19953445e-04,
       -2.20556278e-03, -6.63172640e-03, -9.86980461e-03,
       -1.30588803e-02, -2.56679719e-03, -3.80026759e-03,
       -1.44246989e-03, -4.05756617e-03, -3.61695653e-03,
       -3.17304768e-03, 9.01976693e-03, 1.57835744e-02, 6.62877969e-03,
       4.43691068e-04, -2.50727567e-03, -2.01380416e-03, -1.05349405e-03,
       -4.32874695e-05, -1.86460023e-03, -6.85498584e-03,
       -5.19185513e-03, -1.15903318e-02, -1.96944643e-03,
       -2.16243509e-03, -5.75845072e-04, -7.91821722e-03,
       -3.45747732e-03, -7.33501045e-03, -6.03406457e-03,
       -1.35005347e-03, -4.99130739e-03, -3.81364836e-03,
       -4.03803447e-03, -8.65744613e-03, -5.81642566e-03,
       -4.28053597e-03, -8.65764450e-03, 1.18277334e-02, 1.74232926e-02,
       5.94806019e-03, -1.68044819e-03, -5.48955100e-03, -7.25744339e-03,
       -3.82742728e-03, -6.90964865e-04, -3.49716819e-03,
       -1.14311394e-03, -4.38957941e-04, -4.35598940e-03,
       -4.86542564e-03, -4.52850200e-03, -4.61166492e-03,
       -6.41516969e-03, -1.50149909e-03, -4.15196456e-03, 1.72196366e-02,
       1.79063994e-02, 3.95827694e-03, -4.10760241e-03, -8.25866312e-03,
       -7.00266007e-03, -1.02390572e-02, -7.15667149e-03,
       -8.04916490e-03, 1.47142662e-02, 1.58438496e-02, 7.03584263e-03,
       -4.59767459e-03, -6.72421046e-03, -1.18868370e-02,
       -1.14820898e-02, -8.69577471e-03, -1.27938576e-02, 7.44855218e-03,
       1.04703521e-02, 7.63341365e-03, -5.77801839e-03, -6.42746268e-03,
       -1.27225555e-02, -1.23645961e-02, -6.80086156e-03,
       -1.04530780e-02, 1.45235742e-02, 1.35239912e-02, 2.91251531e-03,
       -7.23868515e-03, -7.81187229e-03, -1.00060478e-02,
       -1.13358935e-02, -7.30255013e-03, -1.31572699e-02, 1.11413505e-02,
       1.01685012e-02, 4.53786040e-03, -7.41471024e-03, -6.06686994e-03,
       -7.87663087e-03, -4.31809016e-03, -4.75934660e-03,
       -1.19767953e-02, 2.33295513e-03, -2.76066689e-03, 5.39392326e-03,
       -4.68514301e-03, -4.12367284e-03, -6.72664028e-03, 1.39343482e-03,
       4.64449025e-04, -6.37969840e-03, 1.81946252e-02, 1.24785593e-02,
       7.40916561e-03, -7.78464228e-03, -3.97715392e-03, -2.41048704e-03,
       -7.09692296e-03, -3.40607832e-03, -9.49968398e-03, 8.80347937e-03,
       1.86540908e-03, 3.83277796e-03, -5.62043721e-03, -2.40995525e-03,
       -6.53168233e-03, -6.98965136e-03, -3.68747301e-03,
       -7.99893402e-03, 2.26284303e-02, 8.95554386e-03, 3.30034923e-03,
       -8.46044905e-03, -5.18136332e-03, -8.53191875e-03,
       -5.27397683e-03, -6.31384505e-03, -8.98407772e-03, 1.13595882e-02,
       8.96436721e-03, 5.58141479e-03, -7.19877379e-03, -2.62980140e-03,
       -4.23659571e-03, -9.72924847e-03, -8.09180085e-03,
       -8.81204382e-03, 7.13334419e-03, 8.36681575e-03, 5.92582067e-03,
       -6.87240995e-03, -4.64719161e-03, -6.81396667e-03,
       -8.03685375e-03, -7.47244339e-03, -9.23794881e-03, 1.41756507e-02,
       6.18604431e-03, 9.30134673e-04, -9.32667125e-03, -5.89031540e-03,
       -9.44927149e-03, -1.11902282e-02, -1.09442491e-02,
       -1.11606736e-02, 6.48791576e-03, 5.79214329e-03, 2.63363030e-03,
       -7.94692989e-03, -5.89491148e-03, -1.14350682e-02,
       -2.38962006e-03, -3.69197805e-03, -2.17991881e-03, 4.65619145e-03,
       1.51066072e-02, 3.96379968e-03, -7.56904890e-04, -1.91570458e-03,
       -1.86439691e-04, -9.04221903e-04, 4.34889167e-04, -2.14600540e-03,
       -8.51252675e-03, -6.97565358e-03, -8.75837915e-03,
       -6.24697481e-04, -3.01427615e-04, 5.67855837e-04, -1.39757292e-03,
       -1.24651042e-03, -8.65304755e-05, 2.64626485e-03, 1.64416190e-02,
       3.09916656e-03, 1.50499016e-03, 6.00497588e-04, -4.68018261e-05,
       -2.52302907e-05, 1.01408572e-03, -6.23069936e-04, -7.84287788e-03,
       -3.19752353e-03, -8.99513159e-03, 2.50379415e-03, 2.64893821e-03,
       5.60454791e-04, 2.22089980e-03, 6.39947422e-04, -4.58514225e-03,
       -2.27776938e-03, -1.10061709e-02, -5.63498028e-03,
       -6.98328251e-03, -4.42162668e-03, -7.43512006e-04,
       -2.54063896e-04, -4.82927193e-04, -3.84836248e-03, 8.50512926e-03,
       5.35488222e-03, -7.75172492e-04, -9.65062436e-03, -9.53224115e-03,
       -5.36872260e-03, 4.67843888e-03, 2.94607622e-03, -4.65006614e-03,
       -1.40384975e-04, -1.32893510e-02, -6.77817129e-03, 2.94207595e-03,
       6.47532800e-03, 1.76245801e-03, 1.04627609e-02, 1.23498328e-02,
       -6.73720438e-04, 9.04984120e-03, -1.50685851e-03, -6.09312439e-04,
       -4.48141806e-03, 4.17222455e-03, 2.77239899e-03, -6.22255402e-03,
       -2.81809643e-03, -5.79712400e-03, 1.30036250e-02, 9.25769191e-03,
       2.20874907e-03, -1.03772813e-02, -8.54957942e-03, -8.20465479e-03,
       -9.68567189e-03, -4.80627641e-03, -1.07280472e-02, 1.22699086e-02,
       5.19212661e-03, 2.45129224e-03, -9.41290427e-03, -6.09780615e-03,
       -8.47294740e-03, -8.89095187e-04, 4.72750887e-03, -3.88659071e-03,
       1.41598359e-02, 4.02638083e-03, 6.94223726e-03, -5.30103128e-03,
       1.59457675e-04, -4.80730692e-03, -8.06546211e-03, -1.53167336e-03,
       -8.54177121e-03, 1.28265424e-02, -1.92945835e-03, 3.47527233e-03,
       -8.28383397e-03, -3.82537744e-03, -9.10450704e-03,
       -8.90195742e-03, -4.52960795e-03, -8.94256309e-03, 1.18982447e-02,
       4.14934661e-03, 2.02888111e-03, -7.59011647e-03, -4.24529752e-03,
       -8.65248963e-03, -1.03755929e-02, -6.84627658e-03,
       -1.13235321e-02, 2.01544166e-02, 8.68819468e-03, 5.58114843e-03,
       -7.59194884e-03, -5.99479396e-03, -1.05796512e-02,
       -7.91804865e-03, -2.83250585e-03, -6.39495207e-03, 1.43666854e-02,
       -1.32993795e-03, 4.95751575e-03, -6.32282905e-03, -2.12422246e-03,
       -7.26849912e-03, -7.74177210e-03, -2.61664041e-03,
       -8.33085272e-03, 1.08278953e-02, 3.21512553e-03, 1.46533204e-02,
       -3.39740468e-03, -3.60562350e-03, -7.17811054e-03,
       -8.02156329e-03, -6.98063103e-03, -1.06608784e-02, 1.06941974e-02,
       5.70482109e-03, 1.54777383e-03, -7.28639681e-03, -5.18634776e-03,
       -8.49913713e-03, -9.10156593e-03, -6.89313607e-03,
       -1.00296512e-02, 4.64627193e-03, 7.01242080e-03, 5.68892108e-03,
       -5.44334808e-03, -5.06354310e-03, -1.00021688e-02,
       -6.75134454e-03, -2.62813037e-03, -7.22555118e-03, 4.52642934e-03,
       -8.97883729e-05, 9.26083606e-03, -1.94925303e-03, 2.85802409e-03,
       -2.94258492e-03, -4.76300437e-03, -2.79852957e-03,
       -8.03748704e-03, 8.37192230e-04, 2.15319032e-03, 1.05815521e-02,
       2.69030710e-03, 8.83426517e-03, 3.18756537e-03, -2.77064717e-03,
       -2.87908269e-03, -3.39801982e-03, -2.19530403e-03, 5.99324936e-03,
       5.99474472e-04, -4.99418995e-04, -2.30879732e-03, -1.96899869e-03,
       -2.34482856e-03, -1.70330016e-03, -1.35044381e-03,
       -7.75662856e-03, -1.25271101e-02, -9.07811988e-03,
       -2.26834905e-04, -1.80558884e-04, -1.37780735e-03, 7.56798498e-03,
       8.47628224e-04, -2.60485918e-03, -3.56013072e-03, 9.07235499e-03,
       7.00291153e-03, 1.13988984e-02, 1.50255077e-02, 1.92421488e-02,
       6.86446717e-03, 1.10022945e-03, -1.99682172e-03, -6.52117422e-03,
       -1.12284487e-02, -6.56794896e-03, 7.81435592e-05, 9.84065980e-03,
       1.23983035e-02, -1.60156155e-03, 1.43175843e-04, -5.39043918e-03,
       -1.41691556e-03, -1.75156482e-02, -6.50080945e-03, 4.07917192e-03,
       1.14692841e-02, 4.65378165e-03, 7.17299897e-03, 1.17263850e-02,
       -3.40414746e-03, 6.80802623e-04, -9.85711161e-03, -4.29397682e-04,
       6.87191437e-04, 1.29448194e-02, 1.27084740e-02, -4.16700449e-03,
       -1.31414889e-03, -8.87332205e-03, -7.50983274e-03,
       -1.90098807e-02, -4.95378766e-03, -2.60453112e-03, 9.01404489e-03,
       3.65111715e-04, 1.64035754e-03, 3.52512184e-03, -5.23907738e-03,
       -3.81187513e-03, -1.39216334e-02, -7.04954262e-04, 1.15844794e-03,
       1.32613545e-02, 1.40055828e-02, 5.60040912e-03, 8.59567057e-03,
       -4.89229104e-03, 3.76800611e-03, -4.03028354e-03, 3.75097292e-03,
       -2.80806271e-04, 9.05425847e-03, 6.25343295e-03, -4.71513253e-03,
       -2.43770983e-03, -8.30796547e-03, 3.22993915e-03, -4.64684470e-03,
       1.23487110e-03, -3.51307867e-03, 5.98314393e-04, -1.72479358e-03,
       2.23441073e-03, 1.56480455e-04, -8.52095615e-03, 3.40427971e-04,
       -7.26121617e-03, 4.60703438e-03, 2.24243314e-03, 8.46073683e-03,
       1.32837445e-02, -4.16698446e-03, -7.92556908e-03, -1.11616142e-02,
       1.80171349e-03, -6.24753861e-03, 9.52744205e-03, -3.06987832e-03,
       1.04101677e-03, 5.55935141e-04, -4.75122826e-03, -3.20206489e-03,
       -6.92996383e-03, 4.31482540e-03, -6.11973461e-03, 2.47267890e-03,
       -2.69740517e-03, 1.89826402e-04, 9.79080563e-04, -6.98838485e-05,
       1.57700200e-03, -4.32033697e-03, 1.24158431e-03, -7.06961891e-03,
       5.91247249e-03, -2.42544618e-03, -3.29283369e-03, -1.31583447e-03,
       -3.17972247e-03, -6.24241866e-03, -7.90775940e-03, 5.05459448e-03,
       3.20775784e-03, 1.15563357e-02, 5.54147817e-04, 1.94072258e-03,
       -2.27622082e-03, 2.47439719e-03, 6.67795958e-03, -3.96542309e-04,
       1.31105669e-02, -1.86911994e-03, 7.59307947e-03, -9.02036845e-04,
       -2.70431675e-03, 1.73028058e-03, 4.72154468e-03, 3.20342765e-03,
       -4.38727159e-03, -1.41870475e-03, -7.89934583e-03, 4.21976950e-03,
       -3.24604614e-03, 2.19296152e-03, 1.72374328e-03, 9.03110672e-03,
       8.06390028e-03, -3.68074165e-03, -2.30626459e-03, -1.24298511e-02,
       2.03953567e-03, 5.12197497e-04, 8.40372685e-03, 9.06647462e-03,
       1.11277364e-02, 9.48007591e-03, -1.75890001e-03, 5.22585213e-03,
       -8.72438680e-03, -2.89198500e-03, -6.11011218e-03,
       -1.58312940e-03, 6.64053299e-03, 1.25749605e-02, 1.07819568e-02,
       -2.64083943e-03, 1.07036182e-03, -1.58330817e-02, -1.00573655e-02,
       -7.72907212e-03, 5.39112953e-04, 1.05897784e-02, 1.07475910e-02,
       1.18215494e-02, 2.07408261e-03, -2.13239598e-03, -5.08785667e-03,
       -2.88388528e-05, 7.02054054e-03, 1.34504903e-02, 1.48682026e-02,
       3.66251427e-03, 6.64063729e-03, -1.35445793e-03, -2.31431657e-03,
       -8.34712200e-03, -4.76031285e-03, -3.26999580e-03, 4.89523262e-03,
       3.06595047e-03, 1.66261494e-02, 1.62609443e-02, -5.80844411e-04,
       -2.39134463e-03, -9.86968260e-03, -7.12265121e-03,
       -2.28641555e-03, 1.22867804e-03, 6.81688124e-03, -4.99787042e-03,
       1.41240191e-03, -8.57590232e-03, -4.93008969e-03, -1.02180308e-02,
       -5.02854632e-03, -4.83491970e-03, -5.05732745e-03,
       -1.10378033e-02, -2.26806663e-03, -1.55790464e-03,
       -4.94170981e-03, -6.84270123e-03, -8.30618292e-03,
       -2.16321461e-03, -1.52793975e-04, 5.56020159e-03, 4.04442102e-03,
       4.79568215e-03, -4.63135401e-03, -5.79982204e-03, -7.28261424e-04,
       -7.77671230e-05, 2.49676872e-03, 6.01134123e-03, 1.35271810e-02,
       1.30337337e-02, -1.20752526e-03, 5.99480991e-05, -5.55394264e-03,
       -5.72941173e-03, -8.08810815e-03, -1.31964439e-03,
       -2.05472205e-03, -1.90352218e-03, -2.52293656e-03, 2.41972553e-03,
       7.99253117e-03, 2.90051289e-03, 4.66783158e-03, 3.35378246e-03,
       -1.49753713e-03, -2.58657290e-03, -4.01419401e-03,
       -4.60042385e-03, 1.08272780e-03, -7.01640081e-03, -1.10745402e-02,
       -1.66834347e-04, -9.11637733e-04, 2.78818770e-03, -1.93317735e-03,
       -2.37415056e-03, 4.91560437e-03, -4.44284314e-03, -8.94113258e-03,
       -1.12501113e-02, 5.69092575e-03, 8.90978426e-03, 1.34414956e-02,
       -7.13462429e-03, -6.44012727e-03, -2.87548266e-03,
       -6.50596246e-03, -1.36033248e-03, -4.20523947e-03, 8.03001691e-03,
       5.48064569e-03, 3.29056464e-04, -4.46855510e-03, -7.06854742e-03,
       -1.16502354e-02, -1.02703553e-02, -6.30033761e-03,
       -7.49049196e-03, 1.26646450e-02, 1.27212657e-02, 9.10848379e-03,
       -8.69320892e-03, -1.02359010e-02, -1.58507694e-02,
       -1.11436788e-02, -6.41585933e-03, -7.24543864e-03, 1.05794938e-02,
       1.63545627e-02, 1.20418193e-02, -7.38590118e-03, -9.65997297e-03,
       -1.09094223e-02, -4.04328946e-03, -9.82298981e-04,
       -5.36901457e-03, 1.39414072e-02, 9.63821169e-03, 4.72903205e-03,
       -8.16969946e-03, -8.75296909e-03, -8.42728093e-03,
       -1.29058938e-02, -7.25167198e-03, -9.03048087e-03, 1.19747166e-02,
       1.38280820e-02, 1.05103375e-02, -9.43367928e-03, -9.22238082e-03,
       -1.56203220e-02, -1.19150337e-02, -6.06053928e-03,
       -1.02420524e-02, 1.21729542e-02, 5.98771032e-03, 1.00807957e-02,
       -1.37449205e-02, -9.09271277e-03, -1.25018517e-02, 1.21025257e-02,
       5.81527036e-03, -8.58358806e-04, 1.16862049e-02, 8.82727932e-03,
       -5.97277482e-04, -5.52883046e-03, -2.13201577e-03, 8.26692861e-03,
       1.33046908e-02, 7.60724442e-03, -3.94899491e-03, 6.75215910e-04,
       -6.45604823e-03, -7.22205872e-03, -5.94554795e-03,
       -1.86613284e-03, 1.10590700e-02, -4.70273430e-03, -3.94441327e-03,
       -6.72002183e-03, 4.83111665e-03, 3.79816722e-03, 7.72811426e-03,
       -8.08513165e-03, -4.84601874e-03, -4.99868719e-03,
       -4.49519930e-03, -6.32816693e-03, -1.09501565e-02,
       -8.16672202e-03, -9.46096238e-03, -5.32304868e-03,
       -9.34025180e-03, -5.99268219e-03, -1.43197016e-03, 2.10878290e-02,
       1.85098536e-02, 5.31654852e-03, -1.05290767e-03, 4.67952760e-03,
       -3.34184500e-03, 1.78149878e-03, 1.81464327e-03, 1.22233452e-02,
       4.41288669e-03, 1.91579375e-03, -5.50614810e-03, -6.65334798e-03,
       3.25547601e-03, -2.93048727e-03, 7.80989649e-04, -1.52726355e-03,
       8.75962607e-04, 3.02308565e-03, -1.59935420e-03, -3.28210462e-03,
       -9.93081462e-03, -4.93488228e-03, -1.46486401e-03, 4.22217371e-03,
       -2.19961454e-04, 5.23474813e-03, -1.70611148e-03, -5.04882587e-03,
       -6.70817774e-03, -9.90038645e-03, -1.34168356e-03,
       -5.59037458e-03, -4.30086802e-05, -3.55485990e-03, 1.77328929e-03,
       -2.13259668e-03, -3.25970992e-04, -5.95529098e-03,
       -8.82847980e-03, -9.06170905e-03, 3.90208588e-04, 1.88780003e-04,
       1.26086327e-03, -2.03937828e-03, -1.10019922e-04, 9.35852528e-03,
       7.09008239e-03, 3.22281430e-03, 3.16500082e-03, -6.97280455e-04,
       -3.18458071e-04, -1.21915282e-03, -4.64507146e-03,
       -4.02907049e-03, -3.79416626e-03, -7.37445569e-03,
       -7.27736205e-03, -8.23679566e-03, 2.30657519e-04, 2.54211272e-03,
       -9.27842804e-04, -1.23740255e-03, 1.87915238e-03, 8.38743150e-03,
       8.45339894e-03, 4.70876507e-03, -6.27955596e-04, 7.52662367e-04,
       4.55381395e-03, 3.17674479e-03, 1.05061766e-03, -6.29507098e-03,
       3.44169792e-03, 2.67827115e-03, 6.22722926e-03, -3.28017958e-03,
       -3.26010818e-03, -6.03553141e-03, -6.56569004e-03,
       -9.26645100e-03, -6.36038091e-03, 1.24325918e-03, -2.45216140e-03,
       1.13284690e-02, 2.43036915e-03, 2.61919294e-03, -8.55789706e-03,
       -6.07993407e-03, -9.17510316e-03, -1.34352560e-03, 7.32682180e-03,
       1.32743956e-03, 2.56921677e-03, -1.11233098e-02, -5.37410518e-03,
       -5.31347934e-04, 1.23384548e-03, -2.11149012e-03, 6.21802313e-03,
       7.59197818e-03, 2.66548246e-03, 7.53731467e-03, -8.97732005e-03,
       9.04735178e-04, -3.52588692e-03, 4.81351977e-03, 4.19147406e-03,
       -7.72835780e-03, -1.48214155e-03, -4.70573083e-03, 1.35832513e-02,
       7.01075001e-03, 6.52972329e-03, -4.91230795e-03, -3.13274609e-03,
       -7.69479666e-03, -1.03030838e-02, -5.49912034e-03,
       -1.08653810e-02, 5.50283724e-03, -1.44091260e-03, 1.31742712e-02,
       -4.15114779e-03, -2.14996794e-03, -1.14026209e-02, 5.78508154e-03,
       6.40942343e-03, 1.44447130e-03, 8.02633539e-03, -3.57809779e-03,
       1.96338352e-03, -4.98943310e-03, 2.62687216e-03, 6.36802707e-03,
       2.02912837e-03, -2.64813937e-03, -8.55015591e-03, -1.86062150e-03,
       -9.03189648e-03, 8.93455092e-03, 1.81395141e-03, 1.61227363e-03,
       2.46794196e-03, -2.76847719e-03, -2.81459372e-03, -6.02699444e-03,
       -4.39043343e-03, 3.33759701e-03, 1.28193544e-02, 6.64281799e-03,
       6.59423415e-03, 6.27730478e-05, -1.79095077e-03, -2.41044746e-03,
       -7.93572795e-03, -1.17637431e-02, -1.08403852e-02,
       -4.57300525e-03, 8.67395254e-04, 2.44904170e-03, 2.46037240e-03,
       6.89711003e-03, 2.62998883e-03, 8.31327692e-04, -1.81414431e-03,
       1.60895070e-05, 1.38903540e-02, 1.22316275e-02, 1.18129486e-02,
       9.45553556e-03, 1.49272778e-03, 2.32966687e-03, 5.16815227e-04,
       -7.03011639e-03, -1.23245101e-02, -5.19384816e-03, 5.71619999e-03,
       7.46059790e-03, 5.55860810e-03, 1.72445539e-03, -1.35464175e-03,
       -3.64600634e-03, -8.92921630e-03, -6.68811006e-03,
       -2.50661420e-03, 7.62150390e-03, 3.03775375e-03, 5.34992712e-03,
       -2.58735206e-04, -5.38547523e-03, -4.43889853e-03,
       -3.80765740e-03, 9.18831647e-05, -5.06210839e-03, 7.44574179e-04,
       -2.75709340e-03, 2.22298899e-03, 2.53686146e-03, 5.74467843e-03,
       7.97641650e-03, 3.45678604e-03, -5.76697988e-04, -2.86641414e-03,
       9.69653204e-03, 6.16803626e-03, 6.61948044e-03, 5.39177156e-04,
       -6.55389111e-03, -1.40295958e-03, 5.24293246e-05, 7.95837399e-03,
       -2.35930108e-03, 6.73666946e-04, -1.13928945e-04, -1.75858615e-04,
       2.59515422e-04, -3.79006844e-03, -3.53516149e-03, -5.93069056e-03,
       -8.05319753e-03, 9.29442467e-04, 4.19851439e-03, 2.11936352e-03,
       3.60522862e-03, 7.49054225e-03, 6.52706542e-04, -2.02980198e-04,
       9.00746789e-04, -5.52836293e-03, 1.90760288e-03, 7.65914563e-03,
       1.34139024e-02, 1.05497511e-02, -4.85662185e-03, -5.52676013e-03,
       -4.65966715e-03, -6.12848625e-03, -7.22827855e-03,
       -4.61042067e-03, -3.02889594e-03, -1.56949682e-03,
       -7.80572649e-04, -7.83540145e-06, -6.37309672e-03,
       -7.04777148e-03, -8.03579856e-03, -8.97041894e-03,
       -5.05347794e-04, -2.50046235e-03, 4.35888208e-03, 5.27661107e-03,
       5.50824217e-03, 1.18513568e-03, -4.98079788e-03, -2.13017734e-03,
       -1.18444413e-02, -3.29720578e-03, 4.15665982e-03, 1.26065444e-02,
       1.22173596e-02, 1.77591071e-02, 6.78959442e-03, -7.72043248e-04,
       -2.19596853e-03, -1.20185567e-02, 2.46324856e-03, -2.10393453e-03,
       1.68048218e-02, 2.23619938e-02, -2.01869546e-03, -5.48010785e-03,
       -9.41326562e-03, -9.31294914e-03, -1.75087713e-02,
       -4.22222493e-03, -9.24326107e-03, -1.29478646e-03, 4.16862965e-03,
       8.05421919e-03, -7.53503432e-03, -9.20415018e-03, -1.12570003e-02,
       -2.06342842e-02, -7.36672617e-03, -1.22405104e-02,
       -1.05713087e-03, 1.25230867e-02, 2.36123484e-02, 5.85932238e-03,
       -2.82832910e-03, -3.47408862e-03, -1.40154380e-02,
       -2.23961286e-03, -6.34560594e-03, 7.78954849e-03, 2.46043820e-02,
       1.86918173e-02, 4.89880145e-03, -4.24888963e-03, -8.30686651e-03,
       -1.85099524e-02, -3.59285367e-03, -6.61267852e-03,
       -9.62647144e-04, 1.45818889e-02, 1.27155082e-02, -3.27857677e-03,
       -8.92452151e-03, -9.87161417e-03, -1.94478203e-02,
       -7.46483076e-03, -1.37862992e-02, -6.69401651e-03, 1.37212649e-02,
       1.01606650e-02, -8.64301750e-04, -1.06305024e-02, -1.13942195e-02,
       -2.41295341e-02, -1.15615046e-02, -1.38853481e-02,
       -9.39296279e-03, 5.03721600e-03, 1.68100502e-02, 1.64739937e-02,
       9.12576634e-03, 8.60425469e-04, -1.59489794e-03, 1.51337800e-03,
       2.94767879e-03, 3.35233123e-03, 1.19450474e-02, 7.32330885e-03,
       9.83014517e-03, 1.11370906e-02, -2.40701204e-03, -1.04045095e-02,
       -9.11282469e-03, -2.75189825e-03, -2.47780723e-03, 1.81411952e-03,
       1.04953749e-02, 7.73813063e-03, 2.88730324e-03, -6.94982335e-03,
       -1.02851242e-02, -6.14283467e-03, -3.64708784e-03,
       -3.55082122e-03, 2.69314344e-03, 1.26082814e-04, -7.58313283e-04,
       -1.72461115e-03, -1.22463256e-02, -1.28007447e-02,
       -1.04719680e-02, -7.83752836e-03, -7.00358255e-03,
       -4.90646437e-03, 4.29891469e-03, 7.95203447e-03, 9.29570850e-03,
       6.61202986e-03, 2.64080986e-03, -3.89584852e-03, 4.55892272e-03,
       2.31716339e-03, 1.40860281e-03, -3.76041025e-05, -4.46081813e-03,
       2.29420629e-03, 5.61877270e-04, 8.41606688e-03, 1.25397055e-04,
       2.11682334e-03, 2.07385793e-03, 2.31495884e-04, 2.01931805e-03,
       -9.35182208e-04, 1.41823245e-03, -3.46465036e-03, -1.48471547e-04,
       -5.08470414e-03, -2.87143863e-03, -3.50793242e-03, 5.15306834e-04,
       -1.46213232e-03, -2.82803783e-03, 3.66547471e-03, 1.98693248e-03,
       3.24733392e-03, -5.94100391e-04, -2.20612250e-03, -2.07966194e-03,
       -1.23652501e-03, -3.78297478e-01 ]
